-0.29672228393132055,-0.8793859228139015,1.40073931324506,-0.2715439653388007,-1.6865278898423408,1.0843379263858892,0.06077895369128664,-0.14104632715175858,0.4331716818410989,-0.5028390496783381,-0.1708316643216331,0.5062137605485706,-0.3045913633701626,-0.7911855690163263,0.5662563319992528,0.016528726449679895
-0.9578924045388778,0.44769075262681285,0.481121055792864,-0.7405587911586958,-0.357629896356466,0.29052434728030857,-0.7501521397044519,-0.3752114680457142,0.8605913994610418,2.8507593442248607,0.5129213543446336,0.0745463820274282,-1.5056324036315691,-0.18492030575469218,0.9061476694785071,-0.2798471302981673
-0.7068003645428222,0.22660923581631534,0.04119308164972665,0.6043552845640461,-0.5756267230848446,0.09146816321856939,0.6325561370364802,0.8339857386364993,-0.799241364852658,-1.5036863378138896,0.578211097090561,-0.38433086207058076,-0.9062001854580931,0.37858322048939647,-0.3926343424745129,-0.6401766363867639
-1.1029650494912109,0.9034706009125312,0.4343291356964246,1.0424121491888942,1.063161760257508,-0.43180192323274663,-0.25785849385199544,-0.36473040346274993,0.6654931001495414,0.4685410484018146,-0.29412475133981114,0.17468059246332396,-1.6950076187565077,0.843864715423927,0.12600315090238093,-0.22083393890818429
-0.6548264483071565,-0.6434962464858568,0.9260859596215013,-0.03225147207042074,-0.5680469580128467,-0.516238780326612,0.09901877613985109,-0.518418261327753,-0.5707625368590082,0.24535962292295047,-0.3600896568171291,0.06839272160906895,0.926704050466917,-0.7153593437266063,-0.9518843962530252,0.07899047723483718
0.25964617192289213,1.0967130612879394,-0.048138760273592714,0.3250176025732819,0.05116390554310813,-0.4685282857441859,1.2623356284506464,0.8123212363735555,0.7125061969753597,-0.6896958459748741,-0.23758980157452866,-0.1366343301980804,-0.049777202315438834,0.8689922208835743,-0.798117868081421,-0.4002646157711023
-0.8261407914757787,-0.016028587914800222,0.912739534817479,-0.3690965520199141,0.6524544159054363,-0.31068464060445167,-0.6684155048089592,0.6831158028489025,0.042760364605029,-0.3479046108486483,-1.186838672555638,1.0265968830984862,1.0465661669713926,-1.0611539657289797,-0.3634728283185822,0.771978690317113
-0.010296542260020754,-0.7238996253748112,-0.5699710653961725,1.247328160155402,-0.37664139769567995,0.3994323052647203,-0.8984051981567176,-0.32464030343187267,-0.14947969140714285,-0.48014042328754847,-0.2967912830910085,0.11011905118139885,-0.37005831494195224,-0.3322096551750913,-0.542142477560222,-0.0904964747923793
